tree
version=v3
num_class=1
num_tree_per_iteration=1
label_index=0
max_feature_idx=16
objective=regression
feature_names=hour clickCount clickMin clickMax clickTotal cartCount cartMin cartMax cartTotal cartStep status score sess_count customer_total_orders total_duration is_customer missing_items_total
feature_infos=[0:23] [1:200] [0:5999.9899999999998] [0:6999.9899999999998] [0:104519.05] [0:46] [0:6999.9899999999998] [0:6999.9899999999998] [0:23116.880000000001] [-1:5] [0:1] [-1:638] [1:72] [0:1248] [0:980431.32600000012] [0:1] [0:103199.07000000001]
tree_sizes=2896 2967 2980 2969 2979 2972 2981 2989 2981 2993

Tree=0
num_leaves=31
num_cat=0
split_feature=12 13 9 14 13 6 12 13 12 12 12 7 6 5 10 12 13 5 12 5 6 9 6 14 8 6 13 7 5 14
split_gain=9738.3 4151.99 528.347 412.877 395.557 346.216 334.43 240.063 198.38 196.307 187.54 155.169 148.265 138.309 111.174 96.1694 94.1927 86.8689 81.8648 76.4764 74.148 67.9493 67.8304 66.9822 64.5963 67.2889 79.5227 58.9742 55.1 103.768
threshold=4.5000000000000009 5.5000000000000009 2.5000000000000004 342.01800000000009 2.5000000000000004 59.970000000000006 9.5000000000000018 4.5000000000000009 3.5000000000000004 8.5000000000000018 6.5000000000000009 101.41500000000001 89.995000000000019 4.5000000000000009 1.0000000180025095e-35 61.500000000000007 8.5000000000000018 1.0000000180025095e-35 5.5000000000000009 3.5000000000000004 3.2450000000000006 4.5000000000000009 12.965000000000002 111.312 41.945000000000007 20.245000000000001 36.500000000000007 1.0000000180025095e-35 1.5000000000000002 414.01350000000008
decision_type=2 2 2 2 2 2 2 2 2 2 2 2 2 2 2 2 2 2 2 2 2 2 2 2 2 2 2 2 2 2
left_child=4 2 6 18 -1 9 7 10 -6 13 28 27 15 16 -11 -8 20 -16 -4 -12 -3 -13 -10 -19 -25 -26 -27 -5 29 -2
right_child=1 5 3 11 8 -7 12 -9 22 14 19 21 -14 -15 17 -17 -18 23 -20 -21 -22 -23 -24 24 25 26 -28 -29 -30 -31
leaf_value=0.64471943810727772 0.6457581328357882 0.66371051274490389 0.6791466460154576 0.64831441372688026 0.65025479545068254 0.67769106554765113 0.67291109246222303 0.67492199708775891 0.65414597239894101 0.66845005553997605 0.6676202452229586 0.67151065691303069 0.66474030088436131 0.66194505626337485 0.66602741186257097 0.64285222869014491 0.67196478367032075 0.65354405290815709 0.64389700484068468 0.65611632404093534 0.68321509909136435 0.68407503562010563 0.669511154501232 0.68398491492232227 0.68717815997760234 0.68464360479740149 0.67153102701319412 0.68368928630101355 0.65122055527427347 0.66319079041154139
leaf_weight=19655 1084 501 197 119 4208 17901 37375 4300 943 920 10130 5583 6933 948 548 268 2310 159 1005 1685 17775 1333 3014 30026 84331 13565 1264 11863 3334 4017
leaf_count=19655 1084 501 197 119 4208 17901 37375 4300 943 920 10130 5583 6933 948 548 268 2310 159 1005 1685 17775 1333 3014 30026 84331 13565 1264 11863 3334 4017
internal_value=0 0.0600693 -0.114664 0.0280398 -0.562488 0.151646 -0.156159 -0.249884 -0.377483 0.167104 -0.295452 0.0641855 -0.10454 0.0786306 0.181668 -0.0797894 0.0958287 0.184122 -0.540247 -0.214139 0.119877 -0.0550845 -0.216742 0.185805 0.186604 0.198908 0.136787 0.133028 -0.409348 -0.344007
internal_weight=0 259474 89226 20100 27820 170248 69126 24550 8165 152347 20250 18898 44576 21534 130813 37643 20586 129893 1202 11815 18276 6916 3957 129345 129186 99160 14829 11982 8435 5101
internal_count=287294 259474 89226 20100 27820 170248 69126 24550 8165 152347 20250 18898 44576 21534 130813 37643 20586 129893 1202 11815 18276 6916 3957 129345 129186 99160 14829 11982 8435 5101
shrinkage=1


Tree=1
num_leaves=31
num_cat=0
split_feature=12 13 9 14 13 6 12 13 12 12 7 6 5 12 10 13 12 5 12 6 5 9 6 14 8 6 13 13 16 7
split_gain=8788.82 3747.17 476.833 372.621 356.991 312.46 301.905 250.895 179.038 177.167 140.04 130.332 124.824 121.95 100.335 85.0089 84.8132 78.3992 73.883 66.9186 62.408 61.3242 61.2169 60.4514 58.2982 60.7282 73.6781 54.4518 58.3172 53.2242
threshold=4.5000000000000009 5.5000000000000009 2.5000000000000004 342.01800000000009 2.5000000000000004 59.970000000000006 8.5000000000000018 4.5000000000000009 3.5000000000000004 8.5000000000000018 101.41500000000001 89.995000000000019 4.5000000000000009 6.5000000000000009 1.0000000180025095e-35 8.5000000000000018 61.500000000000007 1.0000000180025095e-35 5.5000000000000009 3.2450000000000006 2.5000000000000004 4.5000000000000009 12.965000000000002 111.312 41.945000000000007 20.245000000000001 26.500000000000004 41.500000000000007 196.88500000000008 1.0000000180025095e-35
decision_type=2 2 2 2 2 2 2 2 2 2 2 2 2 2 2 2 2 2 2 2 2 2 2 2 2 2 2 2 2 2
left_child=4 2 6 18 -1 9 7 13 -6 12 29 16 15 -2 -11 19 -8 -16 -4 -3 -15 -12 -10 -19 -25 -26 -27 -7 -29 -5
right_child=1 5 3 10 8 27 11 -9 22 14 21 -13 -14 20 17 -17 -18 23 -20 -21 -22 -23 -24 24 25 26 -28 28 -30 -31
leaf_value=-0.030368761787339344 -0.019444034106468548 -0.012327242673871046 0.0023370838709894171 -0.026953535946477366 -0.025110172760803892 0.0015511193373921324 -0.0039214058765919416 -0.0016763320301854336 -0.021413554766334886 -0.0078246767883715426 -0.0049171053256139565 -0.011193659821212848 -0.014004425245498303 -0.0082689788870791685 -0.010126188854231452 -0.0044856849848191977 -0.032142612338066104 -0.021985379198812091 -0.031150073729344269 0.006202113910817899 -0.01823128436897414 0.007019054054632639 -0.006816632747551267 0.0069334394679943442 0.0099670218995154616 0.0082384575389625649 -0.00063688450096890297 0.013093468456805408 -0.019102646261212899 0.0066525915815508069
leaf_weight=19655 8435 501 197 119 4208 17100 40243 4300 943 920 5583 7728 948 6025 548 2310 268 159 1005 17775 2127 1333 3014 30026 84331 11920 2909 182 619 11863
leaf_count=19655 8435 501 197 119 4208 17100 40243 4300 943 920 5583 7728 948 6025 548 2310 268 159 1005 17775 2127 1333 3014 30026 84331 11920 2909 182 619 11863
internal_value=0 0.0570659 -0.108931 0.0266378 -0.534364 0.144064 -0.148351 -0.248784 -0.358609 0.158749 0.0609762 -0.104865 0.0746991 -0.304587 0.172585 0.0910373 -0.0821621 0.174916 -0.513235 0.113883 -0.217366 -0.0523302 -0.205905 0.176515 0.177273 0.188963 0.129948 0.0190857 -0.235743 0.126377
internal_weight=0 259474 89226 20100 27820 170248 69126 20887 8165 152347 18898 48239 21534 16587 130813 20586 40511 129893 1202 18276 8152 6916 3957 129345 129186 99160 14829 17901 801 11982
internal_count=287294 259474 89226 20100 27820 170248 69126 20887 8165 152347 18898 48239 21534 16587 130813 20586 40511 129893 1202 18276 8152 6916 3957 129345 129186 99160 14829 17901 801 11982
shrinkage=0.05


Tree=2
num_leaves=31
num_cat=0
split_feature=12 13 9 14 13 12 3 13 12 12 12 7 8 13 10 12 5 5 5 5 12 9 9 14 9 2 5 14 7 7
split_gain=7931.91 3381.82 430.341 338.45 322.184 275.403 250.095 196.475 161.581 151.079 141.228 132.705 112.717 110.997 94.9283 89.7366 88.4808 78.5173 66.6098 57.864 55.2026 54.9607 53.0435 51.4434 50.7019 49.8383 49.7278 93.6505 48.6751 47.832
threshold=4.5000000000000009 5.5000000000000009 2.5000000000000004 414.01350000000008 2.5000000000000004 9.5000000000000018 271.99000000000007 4.5000000000000009 3.5000000000000004 6.5000000000000009 8.5000000000000018 101.41500000000001 348.92500000000007 8.5000000000000018 1.0000000180025095e-35 5.5000000000000009 2.5000000000000004 4.5000000000000009 3.5000000000000004 2.5000000000000004 61.500000000000007 4.5000000000000009 1.5000000000000002 142.87300000000002 1.0000000180025095e-35 15.955000000000002 1.5000000000000002 414.01350000000008 1.0000000180025095e-35 7.245000000000001
decision_type=2 2 2 2 2 2 2 2 2 2 2 2 2 2 2 2 2 2 2 2 2 2 2 2 2 2 2 2 2 2
left_child=4 2 5 15 -1 7 10 9 -6 26 13 28 20 17 -12 -4 24 29 -11 -10 -7 -13 -15 -18 -16 -8 27 -2 -5 -3
right_child=1 6 3 11 8 12 25 -9 19 18 14 21 -14 22 16 -17 23 -19 -20 -21 -22 -23 -24 -25 -26 -27 -28 -29 -30 -31
leaf_value=-0.028850324465342376 -0.028409801121127561 -0.0059290524407848277 0.0031087551181925872 -0.025605859864158795 -0.023854663724100975 -0.0032232040747062576 0.0046248364548590491 -0.0015925159787022792 -0.0075956716456583575 -0.0081802564335716667 -0.0077924611315291414 -0.0046965840566072538 -0.0094390186577482226 -0.010655829451894493 0.0079885131002302868 -0.029300297976804834 -0.014756853614760713 -0.010690119743822106 -0.018916472743102281 -0.026513227657364025 -0.030535480380058291 0.006628414795375355 0.0039409595472561032 0.0091275557293384168 0.0042806605519416386 -0.0010043968414871552 -0.023220499248724893 -0.011848776174149526 0.0065336548258887982 0.0062678245088928887
leaf_weight=19655 1084 839 266 119 4208 34584 6226 4300 3500 10130 930 5560 9806 1780 18806 1084 226 753 1685 457 186 1327 957 91800 18087 10671 3334 4017 11744 19173
leaf_count=19655 1084 839 266 119 4208 34584 6226 4300 3500 10130 930 5560 9806 1780 18806 1084 226 753 1685 457 186 1327 957 91800 18087 10671 3334 4017 11744 19173
internal_value=0 0.0542126 -0.103485 0.0253059 -0.507646 -0.140933 0.136861 -0.225986 -0.340678 -0.26721 0.149583 0.0601248 -0.0940909 0.0782512 0.162494 -0.45829 0.16479 0.103201 -0.194228 -0.19561 -0.0673862 -0.0502892 -0.11104 0.181378 0.123414 0.0213959 -0.369437 -0.307362 0.124225 0.115129
internal_weight=0 259474 89226 20100 27820 69126 170248 24550 8165 20250 153351 18750 44576 23502 129849 1350 128919 20765 11815 3957 34770 6887 2737 92026 36893 16897 8435 5101 11863 20012
internal_count=287294 259474 89226 20100 27820 69126 170248 24550 8165 20250 153351 18750 44576 23502 129849 1350 128919 20765 11815 3957 34770 6887 2737 92026 36893 16897 8435 5101 11863 20012
shrinkage=0.05


Tree=3
num_leaves=31
num_cat=0
split_feature=12 13 9 14 13 6 12 13 12 12 12 7 6 5 12 5 12 9 13 5 9 13 12 14 5 9 13 16 13 5
split_gain=7158.55 3052.09 388.383 305.451 290.771 261.742 248.551 177.318 145.827 145.732 136.349 119.766 115.668 104.022 80.9873 73.438 72.7355 69.9305 74.4094 60.1153 54.7036 51.9329 104.309 51.7175 50.865 49.602 48.6669 52.6745 46.106 45.0813
threshold=4.5000000000000009 5.5000000000000009 2.5000000000000004 414.01350000000008 2.5000000000000004 59.970000000000006 9.5000000000000018 4.5000000000000009 3.5000000000000004 8.5000000000000018 6.5000000000000009 101.41500000000001 89.995000000000019 4.5000000000000009 5.5000000000000009 1.0000000180025095e-35 61.500000000000007 1.5000000000000002 8.5000000000000018 3.5000000000000004 1.5000000000000002 42.500000000000007 36.500000000000007 111.312 3.5000000000000004 4.5000000000000009 41.500000000000007 196.88500000000008 3.5000000000000004 2.5000000000000004
decision_type=2 2 2 2 2 2 2 2 2 2 2 2 2 2 2 2 2 2 2 2 2 2 2 2 2 2 2 2 2 2
left_child=4 2 6 14 -1 9 7 10 28 13 -2 -5 16 17 -4 -11 -8 18 -3 -12 -10 23 -23 -17 -25 -13 -7 -28 -6 -9
right_child=1 5 3 11 8 26 12 29 20 15 19 25 -14 -15 -16 21 -18 -19 -20 -21 -22 22 -24 24 -26 -27 27 -29 -30 -31
leaf_value=-0.027407808615275239 -0.017548241296426459 0.0032650087539042461 0.0029533172628485173 0.0059006947788200984 -0.018030600714481482 0.0013458072844653103 -0.0031901454801144809 0.00046814456343013342 -0.012691932444226681 -0.010283663724957297 -0.0077712434006584593 -0.0044617545304538537 -0.01040414128596006 -0.012832448985191841 -0.027835281421447595 -0.020327082145139105 -0.029331451876839595 0.0079898758033322137 -0.0085826338473769734 -0.017970648750176416 0.00087222926799328097 -0.0056647346023548806 0.0069714632551844879 0.006963328947634787 0.0090606389862560085 0.0062969950890307512 0.012382240765369855 -0.018216631480873307 -0.028576404095760417 -0.014743371861321587
leaf_weight=19655 8435 11673 266 11863 2360 17100 37375 3740 2965 559 10130 5560 6933 948 1084 159 268 7418 1495 1685 992 2037 8238 48715 71105 1327 182 619 1848 560
leaf_count=19655 8435 11673 266 11863 2360 17100 37375 3740 2965 559 10130 5560 6933 948 1084 159 268 7418 1495 1685 992 2037 8238 48715 71105 1327 182 619 1848 560
internal_value=0 0.0515019 -0.0983103 0.0240406 -0.482263 0.130018 -0.133887 -0.214687 -0.323644 0.143458 -0.25385 0.0571186 -0.0893864 0.0672287 -0.435376 0.156007 -0.0675252 0.0821435 0.0383983 -0.184517 -0.185829 0.157559 0.0893272 0.163402 0.164159 -0.0477748 0.0156313 -0.225282 -0.453239 -0.0302578
internal_weight=0 259474 89226 20100 27820 170248 69126 24550 8165 152347 20250 18750 44576 21534 1350 130813 37643 20586 13168 11815 3957 130254 10275 119979 119820 6887 17901 801 4208 4300
internal_count=287294 259474 89226 20100 27820 170248 69126 24550 8165 152347 20250 18750 44576 21534 1350 130813 37643 20586 13168 11815 3957 130254 10275 119979 119820 6887 17901 801 4208 4300
shrinkage=0.05


Tree=4
num_leaves=31
num_cat=0
split_feature=12 13 9 14 13 6 12 13 12 12 7 6 9 12 10 13 4 12 8 1 6 6 13 8 13 16 4 4 7 14
split_gain=6460.59 2754.51 350.516 275.67 262.421 236.223 225.202 185.698 131.609 131.523 108.51 101.623 90.9034 87.6783 81.9874 79.8814 73.2626 64.1713 59.8706 53.3905 52.9952 49.2996 65.4485 46.9961 43.9219 47.5387 43.4275 42.5564 42.3496 42.1139
threshold=4.5000000000000009 5.5000000000000009 2.5000000000000004 414.01350000000008 2.5000000000000004 59.970000000000006 8.5000000000000018 4.5000000000000009 3.5000000000000004 8.5000000000000018 244.49500000000003 89.995000000000019 1.5000000000000002 6.5000000000000009 1.0000000180025095e-35 8.5000000000000018 49.995000000000012 61.500000000000007 41.945000000000007 14.500000000000002 12.965000000000002 20.245000000000001 35.500000000000007 1899.9200000000003 41.500000000000007 196.88500000000008 4690.2000000000007 419.90500000000003 1.0000000180025095e-35 379.30000000000001
decision_type=2 2 2 2 2 2 2 2 2 2 2 2 2 2 2 2 2 2 2 2 2 2 2 2 2 2 2 2 2 2
left_child=4 2 6 16 -1 9 7 13 -6 12 28 17 15 29 -11 19 -4 -8 -16 -3 -10 26 -23 -13 -7 -26 -20 -15 -5 -2
right_child=1 5 3 10 8 24 11 -9 20 14 -12 23 -14 27 18 -17 -18 -19 21 -21 -22 22 -24 -25 25 -27 -28 -29 -30 -31
leaf_value=-0.02603741736561856 -0.025233817467285348 0.0045114343141808661 -0.025552069849040428 -0.024620601209271856 -0.021528834359500801 0.001278516687844929 -0.0033169731744370789 -0.0014372451028158498 -0.019171666280462282 -0.0074633023612525155 -0.0034106325092671933 -0.0083899510683657728 0.0076281207286693319 -0.0063834448719550727 0.0055823764567369885 -0.0096277880070754045 0.0071684433601388892 -0.027864879592141109 0.0087366153876856836 -0.002437685381704384 -0.0055902890514955665 0.0065215917738433611 -0.0048714285152666355 -0.021030119963144186 0.011763128720142031 -0.017305800508894329 0.00044032789729720921 -0.013726725150678604 0.0053392450747345218 -0.015213172014525676
leaf_weight=19655 1227 8233 1149 119 4208 17100 40243 4300 943 920 5220 6905 7520 4804 30609 1620 201 268 82843 4161 3014 13442 1391 823 182 619 1608 3348 13411 7208
leaf_count=19655 1227 8233 1149 119 4208 17100 40243 4300 943 920 5220 6905 7520 4804 30609 1620 201 268 82843 4161 3014 13442 1391 823 182 619 1608 3348 13411 7208
internal_value=0 0.0489269 -0.0933948 0.0228386 -0.45815 0.123517 -0.127192 -0.213934 -0.307462 0.136285 0.0542627 -0.0896342 0.0638673 -0.261942 0.148207 0.0162729 -0.413607 -0.0695874 0.150313 0.0435685 -0.176538 0.162234 0.109064 -0.194722 0.0148497 -0.214018 0.171573 -0.187986 0.101515 -0.333417
internal_weight=0 259474 89226 20100 27820 170248 69126 20887 8165 152347 18750 48239 21534 16587 130813 14014 1350 40511 129893 12394 3957 99284 14833 7728 17901 801 84451 8152 13530 8435
internal_count=287294 259474 89226 20100 27820 170248 69126 20887 8165 152347 18750 48239 21534 16587 130813 14014 1350 40511 129893 12394 3957 99284 14833 7728 17901 801 84451 8152 13530 8435
shrinkage=0.05


Tree=5
num_leaves=31
num_cat=0
split_feature=12 13 9 14 13 6 12 13 12 13 12 7 7 5 7 4 5 5 9 13 5 12 13 12 5 14 5 14 8 7
split_gain=5796.88 2454.18 319.078 258.972 236.033 217.7 199.832 139.161 121.77 113.234 103.96 102.627 93.3507 88.9066 72.4308 70.3522 66.2138 61.7447 59.0146 58.7233 55.647 54.0034 51.9198 91.4549 50.5813 48.9155 47.3101 76.2879 42.7889 42.3103
threshold=4.5000000000000009 5.5000000000000009 2.5000000000000004 414.01350000000008 2.5000000000000004 59.970000000000006 9.5000000000000018 4.5000000000000009 8.5000000000000018 4.5000000000000009 6.5000000000000009 101.41500000000001 99.995000000000019 4.5000000000000009 3.2450000000000006 49.995000000000012 1.0000000180025095e-35 1.5000000000000002 1.5000000000000002 8.5000000000000018 2.5000000000000004 61.500000000000007 42.500000000000007 36.500000000000007 2.5000000000000004 111.312 1.5000000000000002 414.01350000000008 1899.9200000000003 1.0000000180025095e-35
decision_type=2 2 2 2 2 2 2 2 2 2 2 2 2 2 2 2 2 2 2 2 2 2 2 2 2 2 2 2 2 2
left_child=4 2 6 15 -1 8 7 10 13 17 26 29 21 14 -3 -4 -10 -6 19 -16 -12 -8 25 -24 -9 -18 27 -2 -14 -5
right_child=1 5 3 11 9 -7 12 24 16 -11 20 -13 28 -15 18 -17 22 -19 -20 -21 -22 -23 23 -25 -26 -27 -28 -29 -30 -31
leaf_value=-0.024783827781726248 -0.024604840199171481 -0.017619852099861506 -0.024725657990734954 -0.023609820813421282 -0.0075957812211746205 0.00058226595130573351 -0.0025749301716076088 0.00064165174448224096 -0.0099868539779491075 -0.024227540608465513 -0.0062168190824265163 -0.0022271144277816392 -0.0070054372581342091 -0.012002837303437685 0.0032156766695058351 0.0080348278839550719 -0.020522821746814024 -0.018642004038996369 0.0076798744948513541 -0.0075709283994280412 -0.013858715609349051 -0.02642694034586392 -0.0057450447051042271 0.0060326594584847407 -0.015269293616714677 0.0074043653191914194 -0.02031187942675429 -0.0094949466435584242 -0.017285581125622302 0.0057499974478315103
leaf_weight=19462 1054 393 1154 124 4078 17773 33510 3719 571 2238 8440 6874 9711 950 11652 191 157 1834 7221 1415 3319 239 2064 8183 577 120132 3309 4027 1130 11793
leaf_count=19462 1054 393 1154 124 4078 17773 33510 3719 571 2238 8440 6874 9711 950 11652 191 157 1834 7221 1415 3319 239 2064 8183 577 120132 3309 4027 1130 11793
internal_value=0 0.0460914 -0.0883388 0.0224217 -0.435846 0.116393 -0.120645 -0.19331 0.128582 -0.292972 -0.228149 0.0527624 -0.0808094 0.0590683 0.0728088 -0.401469 0.140051 -0.22045 0.0810455 0.0409523 -0.167475 -0.0548769 0.141537 0.0732068 -0.0299073 0.147358 -0.313186 -0.252587 -0.16154 0.10889
internal_weight=0 259682 89171 20136 27612 170511 69035 24445 152738 8150 20149 18791 44590 21631 20681 1345 131107 5912 20288 13067 11759 33749 130536 10247 4296 120289 8390 5081 10841 11917
internal_count=287294 259682 89171 20136 27612 170511 69035 24445 152738 8150 20149 18791 44590 21631 20681 1345 131107 5912 20288 13067 11759 33749 130536 10247 4296 120289 8390 5081 10841 11917
shrinkage=0.05


Tree=6
num_leaves=31
num_cat=0
split_feature=12 15 14 9 12 3 12 12 15 5 6 5 7 11 7 10 6 6 6 9 12 9 8 9 8 0 9 14 12 1
split_gain=5231.69 2198.43 352.487 345.409 220.832 203.324 176.63 135.42 130.897 120.996 92.7349 91.1329 91.0038 75.0677 73.5803 55.8739 50.6006 48.7753 47.7952 47.4924 47.1334 42.478 41.0314 40.428 39.5919 39.5327 37.6757 37.3636 36.448 34.8719
threshold=4.5000000000000009 1.0000000180025095e-35 342.01800000000009 2.5000000000000004 7.5000000000000009 271.99000000000007 3.5000000000000004 6.5000000000000009 1.0000000180025095e-35 3.5000000000000004 99.395000000000024 1.5000000000000002 101.41500000000001 484.50000000000006 3.2450000000000006 1.0000000180025095e-35 19.995000000000001 25.575000000000003 1.1000000000000003 1.5000000000000002 61.500000000000007 2.5000000000000004 5.2000000000000011 4.5000000000000009 1899.9200000000003 10.500000000000002 4.5000000000000009 142.87300000000002 40.500000000000007 1.5000000000000002
decision_type=2 2 2 2 2 2 2 2 2 2 2 2 2 2 2 2 2 2 2 2 2 2 2 2 2 2 2 2 2 2
left_child=6 2 -2 4 11 7 -1 9 -8 18 20 -4 29 15 -15 -9 -17 22 -3 -10 25 -20 -7 27 -12 -6 -14 -16 -18 -5
right_child=1 5 3 12 10 17 8 13 19 -11 24 -13 26 14 23 16 28 -19 21 -21 -22 -23 -24 -25 -26 -27 -28 -29 -30 -31
leaf_value=-0.023272297841886634 -0.022911483862883528 -0.018837406544872884 -0.007899999484851046 -0.01412749005124924 -0.0064270443146136353 -0.015617921535441941 -0.020693833061317946 -0.017090335423531739 -0.011092141055683114 -0.019844485568749654 -0.0078744710352702772 -0.016908528775891128 -0.0042506569708986195 -0.0054783444838835205 -0.0098445878202792006 0.0056588561315988059 0.0019031519432391331 -0.0018204863362022564 0.00098278341043190449 0.0016572410646360849 -0.025144880852563598 0.0084993190152812328 0.0043813314912410882 0.012334827092826808 -0.019210383287298752 -0.0024862384194475283 0.0053455427359854549 0.0070321568148300111 -0.018168183570278103 0.005336105543885146
leaf_weight=19543 2515 267 6220 235 7763 267 4133 299 2967 666 7771 5117 5397 1164 329 28311 9022 10812 8926 969 246 2381 6500 3647 855 35312 1262 103066 232 11100
leaf_count=19543 2515 267 6220 235 7763 267 4133 299 2967 666 7771 5117 5397 1164 329 28311 9022 10812 8926 969 246 2381 6500 3647 855 35312 1262 103066 232 11100
internal_value=0 0.0437868 -0.0895195 -0.0781105 -0.112872 0.107294 -0.414054 0.118623 -0.289583 0.0175869 -0.0852755 -0.239321 0.0441437 0.12709 0.1405 0.0887667 0.0921938 0.00526261 0.041437 -0.159068 -0.0664218 0.0513119 0.0718447 0.143219 -0.179961 -0.0639291 -0.0486401 0.139569 0.0279992 0.0986516
internal_weight=0 259682 83793 81278 63284 175889 27612 158310 8069 12240 51947 11337 17994 146070 108206 37864 37565 17579 11574 3936 43321 11307 6767 107042 8626 43075 6659 103395 9254 11335
internal_count=287294 259682 83793 81278 63284 175889 27612 158310 8069 12240 51947 11337 17994 146070 108206 37864 37565 17579 11574 3936 43321 11307 6767 107042 8626 43075 6659 103395 9254 11335
shrinkage=0.05


Tree=7
num_leaves=31
num_cat=0
split_feature=12 13 9 14 13 6 12 13 12 2 12 7 8 9 13 10 12 4 8 6 13 0 14 3 13 16 9 12 7 11
split_gain=4721.6 1999.87 260.263 212.218 198.142 181.526 167.405 113.387 104.293 102.29 86.1091 83.4494 80.561 73.1241 68.6484 67.3332 60.7589 59.3493 48.3752 50.6385 76.1621 41.4888 39.8033 39.7975 38.1675 43.4013 37.0499 36.6115 36.567 36.5519
threshold=4.5000000000000009 5.5000000000000009 2.5000000000000004 414.01350000000008 2.5000000000000004 59.970000000000006 9.5000000000000018 4.5000000000000009 8.5000000000000018 9.9250000000000025 6.5000000000000009 101.41500000000001 348.92500000000007 1.5000000000000002 8.5000000000000018 1.0000000180025095e-35 3.5000000000000004 49.995000000000012 53.445000000000007 17.995000000000001 35.500000000000007 10.500000000000002 2781.8080000000004 109.97000000000001 41.500000000000007 196.88500000000008 1.0000000180025095e-35 47.500000000000007 1.0000000180025095e-35 443.50000000000006
decision_type=2 2 2 2 2 2 2 2 2 2 2 2 2 2 2 2 2 2 2 2 2 2 2 2 2 2 2 2 2 2
left_child=4 2 6 17 -1 8 7 10 13 -6 -2 28 27 14 22 -10 -11 -4 26 -20 -21 -12 -3 29 -7 -26 -17 -8 -5 -22
right_child=1 5 3 11 9 24 12 -9 15 16 21 -13 -14 -15 -16 18 -18 -19 19 20 23 -23 -24 -25 25 -27 -28 -29 -30 -31
leaf_value=-0.022408462260594144 -0.014214000179386822 0.0049205418615067597 -0.022445193616160077 -0.022092626183744399 -0.021818361895229028 0.0009622136913027484 -0.0022461849062491699 -0.0013971300001361961 -0.0070875813242172597 -0.0151774342706131 -0.013872815270338262 -0.0019999431772984009 -0.0076184236054051549 0.0065979991445571408 -0.0092613879435521993 0.0064617911959561208 -0.0048576412628776322 0.0076446033195051227 0.0077133026466438201 0.0058881122750992507 -0.017718380040400255 -0.0061809134291164339 -0.00075326678710432762 -0.01561668045569139 0.011753389692445946 -0.01682772225442053 0.0034272933155305892 -0.013168248238077591 0.0052018694096289649 0.0036363349129313475
leaf_weight=19462 8390 5490 1154 124 2390 17007 33969 4296 927 2599 2144 6874 9836 7464 1603 20823 3161 191 70019 17882 241 9615 7074 567 171 595 19459 785 11793 1189
leaf_count=19462 8390 5490 1154 124 2390 17007 33969 4296 927 2599 2144 6874 9836 7464 1603 20823 3161 191 70019 17882 241 9615 7074 567 171 595 19459 785 11793 1189
internal_value=0 0.0415975 -0.0797537 0.020279 -0.393351 0.10506 -0.108931 -0.175439 0.11619 -0.262447 -0.206887 0.0477447 -0.0724703 0.0518576 0.00965506 0.126804 -0.190282 -0.363444 0.128716 0.14162 0.0970774 -0.151667 0.0345195 -0.0881441 0.00940944 -0.208947 0.0999184 -0.0498577 0.0983572 0.000747869
internal_weight=0 259682 89171 20136 27612 170511 69035 24445 152738 8150 20149 18791 44590 21631 14167 131107 5760 1345 130180 89898 19879 11759 12564 1997 17773 766 40282 34754 11917 1430
internal_count=287294 259682 89171 20136 27612 170511 69035 24445 152738 8150 20149 18791 44590 21631 14167 131107 5760 1345 130180 89898 19879 11759 12564 1997 17773 766 40282 34754 11917 1430
shrinkage=0.05


Tree=8
num_leaves=31
num_cat=0
split_feature=12 15 14 9 12 3 12 12 5 15 5 7 6 11 7 10 5 7 6 9 12 6 0 8 9 8 14 4 4 1
split_gain=4261.24 1792.65 296.444 282.579 176.338 174.54 148.309 111.918 108.453 104.671 83.3674 80.1422 80.1153 66.5973 65.5075 47.3479 45.1927 43.8816 42.0579 41.2891 40.5533 39.691 39.0395 37.5706 36.3571 36.1891 34.3501 33.1155 33.1143 37.3422
threshold=4.5000000000000009 1.0000000180025095e-35 379.30000000000001 2.5000000000000004 7.5000000000000009 271.99000000000007 3.5000000000000004 6.5000000000000009 3.5000000000000004 1.0000000180025095e-35 1.5000000000000002 99.995000000000019 149.99500000000003 484.50000000000006 3.2450000000000006 1.0000000180025095e-35 2.5000000000000004 7.995000000000001 19.995000000000001 4.5000000000000009 61.500000000000007 25.575000000000003 10.500000000000002 1899.9200000000003 4.5000000000000009 5.2000000000000011 111.312 49.995000000000012 3948.1200000000003 18.500000000000004
decision_type=2 2 2 2 2 2 2 2 2 2 2 2 2 2 2 2 2 2 2 2 2 2 2 2 2 2 2 2 2 2
left_child=6 2 27 4 10 7 -1 8 17 -8 -4 20 19 15 -15 -9 -11 -3 -17 -5 22 25 -6 -13 26 -7 -16 -2 -27 -30
right_child=1 5 3 12 11 21 9 13 -10 16 -12 23 -14 14 24 18 -18 -19 -20 -21 -22 -23 -24 -25 -26 28 -28 -29 29 -31
leaf_value=-0.021038783549155331 -0.022953585648929384 -0.010022591007036128 -0.0068343082940251045 0.0024886351622923405 -0.0060063608916019369 -0.014921356118127203 -0.018538718490155825 -0.015870039967390209 -0.018844739027746447 -0.0051681454557985689 -0.015481799377952871 -0.0064252490121169238 -0.0039053315260907497 -0.0054130441736417135 -0.013958842737170365 0.0050623728930244876 -0.021660090866104022 0.0026992239693146942 0.0011795879524625454 0.0092257928295606563 -0.023263082693810246 -0.001763024588800826 -0.0018687783744699171 -0.015751164975332334 0.011419231868914654 0.0059964661879914104 0.0063806137202176219 -0.0081712786752233361 -0.02765216495503079 2.9060974547594746e-05
leaf_weight=19543 2216 723 6153 10741 6933 267 4133 299 666 3464 5095 11489 4311 1164 208 28311 472 10851 9254 2885 239 10812 32082 1192 3647 4786 103187 457 132 1582
leaf_count=19543 2216 723 6153 10741 6933 267 4133 299 666 3464 5095 11489 4311 1164 208 28311 472 10851 9254 2885 239 10812 32082 1192 3647 4786 103187 457 132 1582
internal_value=0 0.0395176 -0.080859 -0.070062 -0.101509 0.0968646 -0.373684 0.107362 0.0155104 -0.259627 -0.215027 -0.0769235 0.0407102 0.115058 0.127689 0.0789624 -0.142917 0.0380905 0.0821173 0.0783015 -0.0545963 0.00233136 -0.0520806 -0.146037 0.130255 0.0623939 0.126794 -0.408525 0.0772153 -0.042055
internal_weight=0 259682 83793 81120 63183 175889 27612 158310 12240 8069 11248 51935 17937 146070 108206 37864 3936 11574 37565 13626 39254 17579 39015 12681 107042 6767 103395 2673 6500 1714
internal_count=287294 259682 83793 81120 63183 175889 27612 158310 12240 8069 11248 51935 17937 146070 108206 37864 3936 11574 37565 13626 39254 17579 39015 12681 107042 6767 103395 2673 6500 1714
shrinkage=0.05


Tree=9
num_leaves=31
num_cat=0
split_feature=12 13 9 14 13 3 12 13 13 12 12 7 6 13 6 13 4 8 2 6 9 9 9 1 12 6 4 1 9 9
split_gain=3845.77 1629.78 213.81 172.126 166.529 152.751 141.361 91.3189 89.0486 75.9675 71.1823 69.7298 68.6203 62.4538 58.4083 62.9632 49.8211 48.9836 47.845 42.3579 39.1503 43.7753 39.0991 41.82 38.6681 38.4624 34.4116 35.3205 34.358 33.771
threshold=4.5000000000000009 5.5000000000000009 2.5000000000000004 414.01350000000008 2.5000000000000004 124.97000000000001 9.5000000000000018 4.5000000000000009 4.5000000000000009 8.5000000000000018 6.5000000000000009 101.41500000000001 89.995000000000019 8.5000000000000018 21.970000000000002 41.500000000000007 49.995000000000012 65.295000000000016 9.9250000000000025 63.490000000000009 1.5000000000000002 1.0000000180025095e-35 1.5000000000000002 14.500000000000002 61.500000000000007 17.995000000000001 3948.1200000000003 18.500000000000004 1.0000000180025095e-35 4.5000000000000009
decision_type=2 2 2 2 2 2 2 2 2 2 2 2 2 2 2 2 2 2 2 2 2 2 2 2 2 2 2 2 2 2
left_child=4 2 6 16 -1 9 7 10 18 13 -2 -5 24 22 26 -16 -4 19 -6 28 21 -12 23 -3 -8 -19 -7 -28 -11 -13
right_child=1 5 3 11 8 14 12 -9 -10 17 20 29 -14 -15 15 -17 -18 25 -20 -21 -22 -23 -24 -25 -26 -27 27 -29 -30 -31
leaf_value=-0.020262727275599485 -0.012907838898314622 0.0039192544688759151 -0.020261055844443716 0.0044830586685273661 -0.017536613376689707 0.0050383217602965628 -0.002270892515553099 -0.0013600734515146838 -0.020244143525066923 0.0060907322021933868 -0.0061806487670922443 -0.00354347881080435 -0.0077931099394710256 -0.0048172432098895742 0.00029260725171093417 -0.013001987977363802 0.007307769303546526 0.0074179801357279959 -0.0062865766091695476 -0.026283602728085088 -0.0025359443525473282 -0.013924991576619678 0.0067286291512417169 -0.002407380724861932 -0.022159509518282203 0.0046453380586090184 -0.02891971642772357 -0.00032629803316626849 0.0034201180805604396 0.0053718630913914571
leaf_weight=19462 8390 8597 1154 11917 1181 11499 37345 4296 2238 24517 5404 5561 6999 2445 15740 944 191 54040 4731 110 3600 2755 6754 3752 246 16275 114 2053 23671 1313
leaf_count=19462 8390 8597 1154 11917 1181 11499 37345 4296 2238 24517 5404 5561 6999 2445 15740 944 191 54040 4731 110 3600 2755 6754 3752 246 16275 114 2053 23671 1313
internal_value=0 0.0375417 -0.0720071 0.0186602 -0.354999 0.0948317 -0.0984528 -0.159569 -0.234991 0.108759 -0.187791 0.0433959 -0.0649481 0.0541381 0.0305112 -0.00919233 -0.326922 0.118682 -0.170678 0.0941624 -0.137585 -0.175913 0.0733984 0.0399406 -0.0480209 0.135525 0.0789828 -0.0366104 0.0955774 -0.0368113
internal_weight=0 259682 89171 20136 27612 170511 69035 24445 8150 140161 20149 18791 44590 21548 30350 16684 1345 118613 5912 48298 11759 8159 19103 12349 37591 70315 13666 2167 48188 6874
internal_count=287294 259682 89171 20136 27612 170511 69035 24445 8150 140161 20149 18791 44590 21548 30350 16684 1345 118613 5912 48298 11759 8159 19103 12349 37591 70315 13666 2167 48188 6874
shrinkage=0.05


end of trees

feature importances:
sess_count=63
customer_total_orders=46
cartStep=33
cartMin=30
cartCount=28
cartMax=22
total_duration=22
cartTotal=13
clickTotal=9
status=7
clickCount=5
clickMax=5
is_customer=4
missing_items_total=4
hour=3
clickMin=3
score=3

parameters:
[boosting: gbdt]
[objective: regression]
[metric: l1,l2]
[tree_learner: serial]
[device_type: cpu]
[data: ]
[valid: ]
[num_iterations: 100]
[learning_rate: 0.05]
[num_leaves: 31]
[num_threads: 0]
[max_depth: -1]
[min_data_in_leaf: 20]
[min_sum_hessian_in_leaf: 0.001]
[bagging_fraction: 0.8]
[pos_bagging_fraction: 1]
[neg_bagging_fraction: 1]
[bagging_freq: 5]
[bagging_seed: 3]
[feature_fraction: 0.9]
[feature_fraction_bynode: 1]
[feature_fraction_seed: 2]
[early_stopping_round: 0]
[first_metric_only: 0]
[max_delta_step: 0]
[lambda_l1: 0]
[lambda_l2: 0]
[min_gain_to_split: 0]
[drop_rate: 0.1]
[max_drop: 50]
[skip_drop: 0.5]
[xgboost_dart_mode: 0]
[uniform_drop: 0]
[drop_seed: 4]
[top_rate: 0.2]
[other_rate: 0.1]
[min_data_per_group: 100]
[max_cat_threshold: 32]
[cat_l2: 10]
[cat_smooth: 10]
[max_cat_to_onehot: 4]
[top_k: 20]
[monotone_constraints: ]
[feature_contri: ]
[forcedsplits_filename: ]
[forcedbins_filename: ]
[refit_decay_rate: 0.9]
[cegb_tradeoff: 1]
[cegb_penalty_split: 0]
[cegb_penalty_feature_lazy: ]
[cegb_penalty_feature_coupled: ]
[verbosity: 0]
[max_bin: 255]
[max_bin_by_feature: ]
[min_data_in_bin: 3]
[bin_construct_sample_cnt: 200000]
[histogram_pool_size: -1]
[data_random_seed: 1]
[output_model: LightGBM_model.txt]
[snapshot_freq: -1]
[input_model: ]
[output_result: LightGBM_predict_result.txt]
[initscore_filename: ]
[valid_data_initscores: ]
[pre_partition: 0]
[enable_bundle: 1]
[max_conflict_rate: 0]
[is_enable_sparse: 1]
[sparse_threshold: 0.8]
[use_missing: 1]
[zero_as_missing: 0]
[two_round: 0]
[save_binary: 0]
[header: 0]
[label_column: ]
[weight_column: ]
[group_column: ]
[ignore_column: ]
[categorical_feature: ]
[predict_raw_score: 0]
[predict_leaf_index: 0]
[predict_contrib: 0]
[num_iteration_predict: -1]
[pred_early_stop: 0]
[pred_early_stop_freq: 10]
[pred_early_stop_margin: 10]
[convert_model_language: ]
[convert_model: gbdt_prediction.cpp]
[num_class: 1]
[is_unbalance: 0]
[scale_pos_weight: 1]
[sigmoid: 1]
[boost_from_average: 1]
[reg_sqrt: 0]
[alpha: 0.9]
[fair_c: 1]
[poisson_max_delta_step: 0.7]
[tweedie_variance_power: 1.5]
[max_position: 20]
[lambdamart_norm: 1]
[label_gain: ]
[metric_freq: 1]
[is_provide_training_metric: 0]
[eval_at: ]
[multi_error_top_k: 1]
[num_machines: 1]
[local_listen_port: 12400]
[time_out: 120]
[machine_list_filename: ]
[machines: ]
[gpu_platform_id: -1]
[gpu_device_id: -1]
[gpu_use_dp: 0]

end of parameters

pandas_categorical:[]
